digraph Tree {
node [shape=box] ;
0 [label="mean concave points <= 0.0513\ngini = 0.4669\nsamples = 455\nvalue = [169, 286]\nclass = benign"] ;
1 [label="worst radius <= 16.83\ngini = 0.107\nsamples = 282\nvalue = [16, 266]\nclass = benign"] ;
0 -> 1 [labeldistance=2.5, labelangle=45, headlabel="True"] ;
2 [label="area error <= 48.7\ngini = 0.0373\nsamples = 263\nvalue = [5, 258]\nclass = benign"] ;
1 -> 2 ;
3 [label="worst smoothness <= 0.1777\ngini = 0.0228\nsamples = 260\nvalue = [3, 257]\nclass = benign"] ;
2 -> 3 ;
4 [label="smoothness error <= 0.0033\ngini = 0.0153\nsamples = 259\nvalue = [2, 257]\nclass = benign"] ;
3 -> 4 ;
5 [label="worst concavity <= 0.1947\ngini = 0.2449\nsamples = 7\nvalue = [1, 6]\nclass = benign"] ;
4 -> 5 ;
6 [label="gini = 0.0\nsamples = 6\nvalue = [0, 6]\nclass = benign"] ;
5 -> 6 ;
7 [label="gini = 0.0\nsamples = 1\nvalue = [1, 0]\nclass = malignant"] ;
5 -> 7 ;
8 [label="worst texture <= 33.35\ngini = 0.0079\nsamples = 252\nvalue = [1, 251]\nclass = benign"] ;
4 -> 8 ;
9 [label="gini = 0.0\nsamples = 237\nvalue = [0, 237]\nclass = benign"] ;
8 -> 9 ;
10 [label="worst texture <= 33.56\ngini = 0.1244\nsamples = 15\nvalue = [1, 14]\nclass = benign"] ;
8 -> 10 ;
11 [label="gini = 0.0\nsamples = 1\nvalue = [1, 0]\nclass = malignant"] ;
10 -> 11 ;
12 [label="gini = 0.0\nsamples = 14\nvalue = [0, 14]\nclass = benign"] ;
10 -> 12 ;
13 [label="gini = 0.0\nsamples = 1\nvalue = [1, 0]\nclass = malignant"] ;
3 -> 13 ;
14 [label="mean compactness <= 0.0626\ngini = 0.4444\nsamples = 3\nvalue = [2, 1]\nclass = malignant"] ;
2 -> 14 ;
15 [label="gini = 0.0\nsamples = 2\nvalue = [2, 0]\nclass = malignant"] ;
14 -> 15 ;
16 [label="gini = 0.0\nsamples = 1\nvalue = [0, 1]\nclass = benign"] ;
14 -> 16 ;
17 [label="mean texture <= 16.19\ngini = 0.4875\nsamples = 19\nvalue = [11, 8]\nclass = malignant"] ;
1 -> 17 ;
18 [label="gini = 0.0\nsamples = 6\nvalue = [0, 6]\nclass = benign"] ;
17 -> 18 ;
19 [label="concave points error <= 0.0101\ngini = 0.2604\nsamples = 13\nvalue = [11, 2]\nclass = malignant"] ;
17 -> 19 ;
20 [label="gini = 0.0\nsamples = 11\nvalue = [11, 0]\nclass = malignant"] ;
19 -> 20 ;
21 [label="gini = 0.0\nsamples = 2\nvalue = [0, 2]\nclass = benign"] ;
19 -> 21 ;
22 [label="worst concave points <= 0.1465\ngini = 0.2045\nsamples = 173\nvalue = [153, 20]\nclass = malignant"] ;
0 -> 22 [labeldistance=2.5, labelangle=-45, headlabel="False"] ;
23 [label="worst perimeter <= 115.25\ngini = 0.4996\nsamples = 35\nvalue = [17, 18]\nclass = benign"] ;
22 -> 23 ;
24 [label="worst texture <= 27.43\ngini = 0.2975\nsamples = 22\nvalue = [4, 18]\nclass = benign"] ;
23 -> 24 ;
25 [label="gini = 0.0\nsamples = 18\nvalue = [0, 18]\nclass = benign"] ;
24 -> 25 ;
26 [label="gini = 0.0\nsamples = 4\nvalue = [4, 0]\nclass = malignant"] ;
24 -> 26 ;
27 [label="gini = 0.0\nsamples = 13\nvalue = [13, 0]\nclass = malignant"] ;
23 -> 27 ;
28 [label="fractal dimension error <= 0.0129\ngini = 0.0286\nsamples = 138\nvalue = [136, 2]\nclass = malignant"] ;
22 -> 28 ;
29 [label="gini = 0.0\nsamples = 136\nvalue = [136, 0]\nclass = malignant"] ;
28 -> 29 ;
30 [label="gini = 0.0\nsamples = 2\nvalue = [0, 2]\nclass = benign"] ;
28 -> 30 ;
}